digraph Tree {
node [shape=box] ;
0 [label="fortunate <= -0.261\ngini = 0.254\nsamples = 30000\nvalue = [4472, 25528]"] ;
1 [label="fortunate <= -0.634\ngini = 0.204\nsamples = 14816\nvalue = [1711, 13105]"] ;
0 -> 1 [labeldistance=2.5, labelangle=45, headlabel="True"] ;
2 [label="class <= 0.128\ngini = 0.143\nsamples = 4791\nvalue = [370, 4421]"] ;
1 -> 2 ;
3 [label="et <= 0.138\ngini = 0.141\nsamples = 4785\nvalue = [365, 4420]"] ;
2 -> 3 ;
4 [label="families <= 0.044\ngini = 0.14\nsamples = 4780\nvalue = [361, 4419]"] ;
3 -> 4 ;
5 [label="secondary <= 0.144\ngini = 0.138\nsamples = 4775\nvalue = [357, 4418]"] ;
4 -> 5 ;
6 [label="heritage <= 0.147\ngini = 0.137\nsamples = 4770\nvalue = [353, 4417]"] ;
5 -> 6 ;
7 [label="why <= 0.095\ngini = 0.136\nsamples = 4767\nvalue = [350, 4417]"] ;
6 -> 7 ;
8 [label="forever <= 0.151\ngini = 0.135\nsamples = 4764\nvalue = [347, 4417]"] ;
7 -> 8 ;
9 [label="florida <= 0.136\ngini = 0.134\nsamples = 4761\nvalue = [344, 4417]"] ;
8 -> 9 ;
10 [label="gini = 0.133\nsamples = 4758\nvalue = [341, 4417]"] ;
9 -> 10 ;
11 [label="gini = 0.0\nsamples = 3\nvalue = [3, 0]"] ;
9 -> 11 ;
12 [label="gini = 0.0\nsamples = 3\nvalue = [3, 0]"] ;
8 -> 12 ;
13 [label="gini = 0.0\nsamples = 3\nvalue = [3, 0]"] ;
7 -> 13 ;
14 [label="gini = 0.0\nsamples = 3\nvalue = [3, 0]"] ;
6 -> 14 ;
15 [label="unrealistic <= 0.043\ngini = 0.32\nsamples = 5\nvalue = [4, 1]"] ;
5 -> 15 ;
16 [label="gini = 0.0\nsamples = 4\nvalue = [4, 0]"] ;
15 -> 16 ;
17 [label="gini = 0.0\nsamples = 1\nvalue = [0, 1]"] ;
15 -> 17 ;
18 [label="feedback <= 0.023\ngini = 0.32\nsamples = 5\nvalue = [4, 1]"] ;
4 -> 18 ;
19 [label="gini = 0.0\nsamples = 4\nvalue = [4, 0]"] ;
18 -> 19 ;
20 [label="gini = 0.0\nsamples = 1\nvalue = [0, 1]"] ;
18 -> 20 ;
21 [label="it <= 0.042\ngini = 0.32\nsamples = 5\nvalue = [4, 1]"] ;
3 -> 21 ;
22 [label="gini = 0.0\nsamples = 4\nvalue = [4, 0]"] ;
21 -> 22 ;
23 [label="gini = 0.0\nsamples = 1\nvalue = [0, 1]"] ;
21 -> 23 ;
24 [label="chinese <= 0.065\ngini = 0.278\nsamples = 6\nvalue = [5, 1]"] ;
2 -> 24 ;
25 [label="gini = 0.0\nsamples = 5\nvalue = [5, 0]"] ;
24 -> 25 ;
26 [label="gini = 0.0\nsamples = 1\nvalue = [0, 1]"] ;
24 -> 26 ;
27 [label="clover <= 0.055\ngini = 0.232\nsamples = 10025\nvalue = [1341, 8684]"] ;
1 -> 27 ;
28 [label="flexible <= 0.368\ngini = 0.244\nsamples = 9173\nvalue = [1304, 7869]"] ;
27 -> 28 ;
29 [label="explanations <= 0.024\ngini = 0.242\nsamples = 9158\nvalue = [1292, 7866]"] ;
28 -> 29 ;
30 [label="collaboration <= 0.115\ngini = 0.231\nsamples = 8266\nvalue = [1099, 7167]"] ;
29 -> 30 ;
31 [label="unfolds <= 0.134\ngini = 0.227\nsamples = 8183\nvalue = [1070, 7113]"] ;
30 -> 31 ;
32 [label="order <= 0.015\ngini = 0.227\nsamples = 8178\nvalue = [1065, 7113]"] ;
31 -> 32 ;
33 [label="exam <= 0.114\ngini = 0.238\nsamples = 7241\nvalue = [998, 6243]"] ;
32 -> 33 ;
34 [label="cellphones <= 0.077\ngini = 0.236\nsamples = 7229\nvalue = [990, 6239]"] ;
33 -> 34 ;
35 [label="gini = 0.248\nsamples = 6305\nvalue = [916, 5389]"] ;
34 -> 35 ;
36 [label="gini = 0.147\nsamples = 924\nvalue = [74, 850]"] ;
34 -> 36 ;
37 [label="veggies <= 0.021\ngini = 0.444\nsamples = 12\nvalue = [8, 4]"] ;
33 -> 37 ;
38 [label="gini = 0.32\nsamples = 5\nvalue = [1, 4]"] ;
37 -> 38 ;
39 [label="gini = 0.0\nsamples = 7\nvalue = [7, 0]"] ;
37 -> 39 ;
40 [label="fifty <= 0.121\ngini = 0.133\nsamples = 937\nvalue = [67, 870]"] ;
32 -> 40 ;
41 [label="exercisers <= 0.113\ngini = 0.126\nsamples = 932\nvalue = [63, 869]"] ;
40 -> 41 ;
42 [label="gini = 0.121\nsamples = 929\nvalue = [60, 869]"] ;
41 -> 42 ;
43 [label="gini = 0.0\nsamples = 3\nvalue = [3, 0]"] ;
41 -> 43 ;
44 [label="address <= 0.057\ngini = 0.32\nsamples = 5\nvalue = [4, 1]"] ;
40 -> 44 ;
45 [label="gini = 0.0\nsamples = 4\nvalue = [4, 0]"] ;
44 -> 45 ;
46 [label="gini = 0.0\nsamples = 1\nvalue = [0, 1]"] ;
44 -> 46 ;
47 [label="gini = 0.0\nsamples = 5\nvalue = [5, 0]"] ;
31 -> 47 ;
48 [label="furniture <= 0.044\ngini = 0.455\nsamples = 83\nvalue = [29, 54]"] ;
30 -> 48 ;
49 [label="watched <= 0.062\ngini = 0.405\nsamples = 71\nvalue = [20, 51]"] ;
48 -> 49 ;
50 [label="exception <= 0.063\ngini = 0.364\nsamples = 67\nvalue = [16, 51]"] ;
49 -> 50 ;
51 [label="executing <= 0.03\ngini = 0.296\nsamples = 61\nvalue = [11, 50]"] ;
50 -> 51 ;
52 [label="gini = 0.238\nsamples = 58\nvalue = [8, 50]"] ;
51 -> 52 ;
53 [label="gini = 0.0\nsamples = 3\nvalue = [3, 0]"] ;
51 -> 53 ;
54 [label="venezuela <= 0.03\ngini = 0.278\nsamples = 6\nvalue = [5, 1]"] ;
50 -> 54 ;
55 [label="gini = 0.0\nsamples = 5\nvalue = [5, 0]"] ;
54 -> 55 ;
56 [label="gini = 0.0\nsamples = 1\nvalue = [0, 1]"] ;
54 -> 56 ;
57 [label="gini = 0.0\nsamples = 4\nvalue = [4, 0]"] ;
49 -> 57 ;
58 [label="veggies <= 0.067\ngini = 0.375\nsamples = 12\nvalue = [9, 3]"] ;
48 -> 58 ;
59 [label="caterpillars <= 0.038\ngini = 0.18\nsamples = 10\nvalue = [9, 1]"] ;
58 -> 59 ;
60 [label="gini = 0.0\nsamples = 9\nvalue = [9, 0]"] ;
59 -> 60 ;
61 [label="gini = 0.0\nsamples = 1\nvalue = [0, 1]"] ;
59 -> 61 ;
62 [label="gini = 0.0\nsamples = 2\nvalue = [0, 2]"] ;
58 -> 62 ;
63 [label="cellphones <= 0.062\ngini = 0.339\nsamples = 892\nvalue = [193, 699]"] ;
29 -> 63 ;
64 [label="fearlessly <= 0.119\ngini = 0.377\nsamples = 717\nvalue = [181, 536]"] ;
63 -> 64 ;
65 [label="great <= 0.092\ngini = 0.369\nsamples = 709\nvalue = [173, 536]"] ;
64 -> 65 ;
66 [label="expanding <= 0.066\ngini = 0.359\nsamples = 696\nvalue = [163, 533]"] ;
65 -> 66 ;
67 [label="facebook <= 0.08\ngini = 0.328\nsamples = 614\nvalue = [127, 487]"] ;
66 -> 67 ;
68 [label="gini = 0.314\nsamples = 600\nvalue = [117, 483]"] ;
67 -> 68 ;
69 [label="gini = 0.408\nsamples = 14\nvalue = [10, 4]"] ;
67 -> 69 ;
70 [label="explanations <= 0.028\ngini = 0.493\nsamples = 82\nvalue = [36, 46]"] ;
66 -> 70 ;
71 [label="gini = 0.464\nsamples = 71\nvalue = [26, 45]"] ;
70 -> 71 ;
72 [label="gini = 0.165\nsamples = 11\nvalue = [10, 1]"] ;
70 -> 72 ;
73 [label="flows <= 0.024\ngini = 0.355\nsamples = 13\nvalue = [10, 3]"] ;
65 -> 73 ;
74 [label="gini = 0.0\nsamples = 9\nvalue = [9, 0]"] ;
73 -> 74 ;
75 [label="gini = 0.375\nsamples = 4\nvalue = [1, 3]"] ;
73 -> 75 ;
76 [label="gini = 0.0\nsamples = 8\nvalue = [8, 0]"] ;
64 -> 76 ;
77 [label="flocabulary <= 0.078\ngini = 0.128\nsamples = 175\nvalue = [12, 163]"] ;
63 -> 77 ;
78 [label="centerpiece <= 0.059\ngini = 0.099\nsamples = 172\nvalue = [9, 163]"] ;
77 -> 78 ;
79 [label="checkers <= 0.103\ngini = 0.079\nsamples = 170\nvalue = [7, 163]"] ;
78 -> 79 ;
80 [label="fabric <= 0.135\ngini = 0.058\nsamples = 167\nvalue = [5, 162]"] ;
79 -> 80 ;
81 [label="gini = 0.036\nsamples = 164\nvalue = [3, 161]"] ;
80 -> 81 ;
82 [label="gini = 0.444\nsamples = 3\nvalue = [2, 1]"] ;
80 -> 82 ;
83 [label="gini = 0.444\nsamples = 3\nvalue = [2, 1]"] ;
79 -> 83 ;
84 [label="gini = 0.0\nsamples = 2\nvalue = [2, 0]"] ;
78 -> 84 ;
85 [label="gini = 0.0\nsamples = 3\nvalue = [3, 0]"] ;
77 -> 85 ;
86 [label="caters <= 0.02\ngini = 0.32\nsamples = 15\nvalue = [12, 3]"] ;
28 -> 86 ;
87 [label="venezuela <= 0.156\ngini = 0.142\nsamples = 13\nvalue = [12, 1]"] ;
86 -> 87 ;
88 [label="gini = 0.0\nsamples = 12\nvalue = [12, 0]"] ;
87 -> 88 ;
89 [label="gini = 0.0\nsamples = 1\nvalue = [0, 1]"] ;
87 -> 89 ;
90 [label="gini = 0.0\nsamples = 2\nvalue = [0, 2]"] ;
86 -> 90 ;
91 [label="castles <= 0.113\ngini = 0.083\nsamples = 852\nvalue = [37, 815]"] ;
27 -> 91 ;
92 [label="es <= 0.097\ngini = 0.075\nsamples = 847\nvalue = [33, 814]"] ;
91 -> 92 ;
93 [label="works <= 0.119\ngini = 0.069\nsamples = 844\nvalue = [30, 814]"] ;
92 -> 93 ;
94 [label="hooked <= 0.064\ngini = 0.064\nsamples = 842\nvalue = [28, 814]"] ;
93 -> 94 ;
95 [label="seeds <= 0.221\ngini = 0.06\nsamples = 840\nvalue = [26, 814]"] ;
94 -> 95 ;
96 [label="extraordinarily <= 0.146\ngini = 0.056\nsamples = 838\nvalue = [24, 814]"] ;
95 -> 96 ;
97 [label="envision <= 0.113\ngini = 0.051\nsamples = 836\nvalue = [22, 814]"] ;
96 -> 97 ;
98 [label="gini = 0.047\nsamples = 834\nvalue = [20, 814]"] ;
97 -> 98 ;
99 [label="gini = 0.0\nsamples = 2\nvalue = [2, 0]"] ;
97 -> 99 ;
100 [label="gini = 0.0\nsamples = 2\nvalue = [2, 0]"] ;
96 -> 100 ;
101 [label="gini = 0.0\nsamples = 2\nvalue = [2, 0]"] ;
95 -> 101 ;
102 [label="gini = 0.0\nsamples = 2\nvalue = [2, 0]"] ;
94 -> 102 ;
103 [label="gini = 0.0\nsamples = 2\nvalue = [2, 0]"] ;
93 -> 103 ;
104 [label="gini = 0.0\nsamples = 3\nvalue = [3, 0]"] ;
92 -> 104 ;
105 [label="fluid <= 0.025\ngini = 0.32\nsamples = 5\nvalue = [4, 1]"] ;
91 -> 105 ;
106 [label="gini = 0.0\nsamples = 4\nvalue = [4, 0]"] ;
105 -> 106 ;
107 [label="gini = 0.0\nsamples = 1\nvalue = [0, 1]"] ;
105 -> 107 ;
108 [label="expanding <= 0.043\ngini = 0.298\nsamples = 15184\nvalue = [2761, 12423]"] ;
0 -> 108 [labeldistance=2.5, labelangle=-45, headlabel="False"] ;
109 [label="flexible <= 0.058\ngini = 0.27\nsamples = 12162\nvalue = [1956, 10206]"] ;
108 -> 109 ;
110 [label="foods <= 0.005\ngini = 0.259\nsamples = 11392\nvalue = [1741, 9651]"] ;
109 -> 110 ;
111 [label="cellphones <= 0.082\ngini = 0.294\nsamples = 6071\nvalue = [1088, 4983]"] ;
110 -> 111 ;
112 [label="equipment <= 0.106\ngini = 0.313\nsamples = 5145\nvalue = [999, 4146]"] ;
111 -> 112 ;
113 [label="veggies <= 0.011\ngini = 0.308\nsamples = 5045\nvalue = [958, 4087]"] ;
112 -> 113 ;
114 [label="exhibits <= 0.128\ngini = 0.366\nsamples = 1249\nvalue = [301, 948]"] ;
113 -> 114 ;
115 [label="finds <= 0.163\ngini = 0.362\nsamples = 1243\nvalue = [295, 948]"] ;
114 -> 115 ;
116 [label="trivia <= 0.071\ngini = 0.358\nsamples = 1235\nvalue = [288, 947]"] ;
115 -> 116 ;
117 [label="gini = 0.348\nsamples = 1202\nvalue = [270, 932]"] ;
116 -> 117 ;
118 [label="gini = 0.496\nsamples = 33\nvalue = [18, 15]"] ;
116 -> 118 ;
119 [label="force <= 0.031\ngini = 0.219\nsamples = 8\nvalue = [7, 1]"] ;
115 -> 119 ;
120 [label="gini = 0.0\nsamples = 7\nvalue = [7, 0]"] ;
119 -> 120 ;
121 [label="gini = 0.0\nsamples = 1\nvalue = [0, 1]"] ;
119 -> 121 ;
122 [label="gini = 0.0\nsamples = 6\nvalue = [6, 0]"] ;
114 -> 122 ;
123 [label="explanations <= 0.018\ngini = 0.286\nsamples = 3796\nvalue = [657, 3139]"] ;
113 -> 123 ;
124 [label="exhibit <= 0.109\ngini = 0.239\nsamples = 1676\nvalue = [232, 1444]"] ;
123 -> 124 ;
125 [label="convinced <= 0.089\ngini = 0.236\nsamples = 1672\nvalue = [228, 1444]"] ;
124 -> 125 ;
126 [label="gini = 0.233\nsamples = 1668\nvalue = [224, 1444]"] ;
125 -> 126 ;
127 [label="gini = 0.0\nsamples = 4\nvalue = [4, 0]"] ;
125 -> 127 ;
128 [label="gini = 0.0\nsamples = 4\nvalue = [4, 0]"] ;
124 -> 128 ;
129 [label="evolved <= 0.076\ngini = 0.321\nsamples = 2120\nvalue = [425, 1695]"] ;
123 -> 129 ;
130 [label="fortunate <= 0.77\ngini = 0.312\nsamples = 2050\nvalue = [396, 1654]"] ;
129 -> 130 ;
131 [label="gini = 0.286\nsamples = 1642\nvalue = [284, 1358]"] ;
130 -> 131 ;
132 [label="gini = 0.398\nsamples = 408\nvalue = [112, 296]"] ;
130 -> 132 ;
133 [label="boards <= 0.029\ngini = 0.485\nsamples = 70\nvalue = [29, 41]"] ;
129 -> 133 ;
134 [label="gini = 0.444\nsamples = 60\nvalue = [20, 40]"] ;
133 -> 134 ;
135 [label="gini = 0.18\nsamples = 10\nvalue = [9, 1]"] ;
133 -> 135 ;
136 [label="economic <= 0.051\ngini = 0.484\nsamples = 100\nvalue = [41, 59]"] ;
112 -> 136 ;
137 [label="exciting <= 0.054\ngini = 0.467\nsamples = 94\nvalue = [35, 59]"] ;
136 -> 137 ;
138 [label="fortunate <= 0.345\ngini = 0.442\nsamples = 88\nvalue = [29, 59]"] ;
137 -> 138 ;
139 [label="fallen <= 0.062\ngini = 0.3\nsamples = 49\nvalue = [9, 40]"] ;
138 -> 139 ;
140 [label="gini = 0.227\nsamples = 46\nvalue = [6, 40]"] ;
139 -> 140 ;
141 [label="gini = 0.0\nsamples = 3\nvalue = [3, 0]"] ;
139 -> 141 ;
142 [label="veggies <= 0.029\ngini = 0.5\nsamples = 39\nvalue = [20, 19]"] ;
138 -> 142 ;
143 [label="gini = 0.413\nsamples = 24\nvalue = [17, 7]"] ;
142 -> 143 ;
144 [label="gini = 0.32\nsamples = 15\nvalue = [3, 12]"] ;
142 -> 144 ;
145 [label="gini = 0.0\nsamples = 6\nvalue = [6, 0]"] ;
137 -> 145 ;
146 [label="gini = 0.0\nsamples = 6\nvalue = [6, 0]"] ;
136 -> 146 ;
147 [label="predict <= 0.12\ngini = 0.174\nsamples = 926\nvalue = [89, 837]"] ;
111 -> 147 ;
148 [label="family <= 0.078\ngini = 0.166\nsamples = 920\nvalue = [84, 836]"] ;
147 -> 148 ;
149 [label="cardstock <= 0.106\ngini = 0.158\nsamples = 914\nvalue = [79, 835]"] ;
148 -> 149 ;
150 [label="familiarize <= 0.112\ngini = 0.151\nsamples = 909\nvalue = [75, 834]"] ;
149 -> 150 ;
151 [label="farther <= 0.159\ngini = 0.146\nsamples = 906\nvalue = [72, 834]"] ;
150 -> 151 ;
152 [label="gini = 0.141\nsamples = 903\nvalue = [69, 834]"] ;
151 -> 152 ;
153 [label="gini = 0.0\nsamples = 3\nvalue = [3, 0]"] ;
151 -> 153 ;
154 [label="gini = 0.0\nsamples = 3\nvalue = [3, 0]"] ;
150 -> 154 ;
155 [label="foresee <= 0.052\ngini = 0.32\nsamples = 5\nvalue = [4, 1]"] ;
149 -> 155 ;
156 [label="gini = 0.0\nsamples = 4\nvalue = [4, 0]"] ;
155 -> 156 ;
157 [label="gini = 0.0\nsamples = 1\nvalue = [0, 1]"] ;
155 -> 157 ;
158 [label="distress <= 0.037\ngini = 0.278\nsamples = 6\nvalue = [5, 1]"] ;
148 -> 158 ;
159 [label="gini = 0.0\nsamples = 5\nvalue = [5, 0]"] ;
158 -> 159 ;
160 [label="gini = 0.0\nsamples = 1\nvalue = [0, 1]"] ;
158 -> 160 ;
161 [label="hearing <= 0.06\ngini = 0.278\nsamples = 6\nvalue = [5, 1]"] ;
147 -> 161 ;
162 [label="gini = 0.0\nsamples = 5\nvalue = [5, 0]"] ;
161 -> 162 ;
163 [label="gini = 0.0\nsamples = 1\nvalue = [0, 1]"] ;
161 -> 163 ;
164 [label="seuss <= 0.513\ngini = 0.215\nsamples = 5321\nvalue = [653, 4668]"] ;
110 -> 164 ;
165 [label="entirety <= 0.104\ngini = 0.214\nsamples = 5314\nvalue = [647, 4667]"] ;
164 -> 165 ;
166 [label="donor <= 0.143\ngini = 0.211\nsamples = 5294\nvalue = [636, 4658]"] ;
165 -> 166 ;
167 [label="fables <= 0.099\ngini = 0.206\nsamples = 5199\nvalue = [607, 4592]"] ;
166 -> 167 ;
168 [label="caught <= 0.182\ngini = 0.205\nsamples = 5191\nvalue = [601, 4590]"] ;
167 -> 168 ;
169 [label="expert <= 0.122\ngini = 0.203\nsamples = 5183\nvalue = [595, 4588]"] ;
168 -> 169 ;
170 [label="gini = 0.202\nsamples = 5179\nvalue = [591, 4588]"] ;
169 -> 170 ;
171 [label="gini = 0.0\nsamples = 4\nvalue = [4, 0]"] ;
169 -> 171 ;
172 [label="equalize <= 0.057\ngini = 0.375\nsamples = 8\nvalue = [6, 2]"] ;
168 -> 172 ;
173 [label="gini = 0.0\nsamples = 6\nvalue = [6, 0]"] ;
172 -> 173 ;
174 [label="gini = 0.0\nsamples = 2\nvalue = [0, 2]"] ;
172 -> 174 ;
175 [label="expected <= 0.053\ngini = 0.375\nsamples = 8\nvalue = [6, 2]"] ;
167 -> 175 ;
176 [label="gini = 0.0\nsamples = 6\nvalue = [6, 0]"] ;
175 -> 176 ;
177 [label="gini = 0.0\nsamples = 2\nvalue = [0, 2]"] ;
175 -> 177 ;
178 [label="equipment <= 0.042\ngini = 0.424\nsamples = 95\nvalue = [29, 66]"] ;
166 -> 178 ;
179 [label="watched <= 0.066\ngini = 0.383\nsamples = 89\nvalue = [23, 66]"] ;
178 -> 179 ;
180 [label="breakout <= 0.053\ngini = 0.337\nsamples = 84\nvalue = [18, 66]"] ;
179 -> 180 ;
181 [label="gini = 0.278\nsamples = 78\nvalue = [13, 65]"] ;
180 -> 181 ;
182 [label="gini = 0.278\nsamples = 6\nvalue = [5, 1]"] ;
180 -> 182 ;
183 [label="gini = 0.0\nsamples = 5\nvalue = [5, 0]"] ;
179 -> 183 ;
184 [label="gini = 0.0\nsamples = 6\nvalue = [6, 0]"] ;
178 -> 184 ;
185 [label="feasible <= 0.046\ngini = 0.495\nsamples = 20\nvalue = [11, 9]"] ;
165 -> 185 ;
186 [label="predominant <= 0.107\ngini = 0.391\nsamples = 15\nvalue = [11, 4]"] ;
185 -> 186 ;
187 [label="welcoming <= 0.059\ngini = 0.153\nsamples = 12\nvalue = [11, 1]"] ;
186 -> 187 ;
188 [label="gini = 0.0\nsamples = 11\nvalue = [11, 0]"] ;
187 -> 188 ;
189 [label="gini = 0.0\nsamples = 1\nvalue = [0, 1]"] ;
187 -> 189 ;
190 [label="gini = 0.0\nsamples = 3\nvalue = [0, 3]"] ;
186 -> 190 ;
191 [label="gini = 0.0\nsamples = 5\nvalue = [0, 5]"] ;
185 -> 191 ;
192 [label="standing <= 0.5\ngini = 0.245\nsamples = 7\nvalue = [6, 1]"] ;
164 -> 192 ;
193 [label="gini = 0.0\nsamples = 1\nvalue = [0, 1]"] ;
192 -> 193 ;
194 [label="gini = 0.0\nsamples = 6\nvalue = [6, 0]"] ;
192 -> 194 ;
195 [label="extent <= 0.06\ngini = 0.403\nsamples = 770\nvalue = [215, 555]"] ;
109 -> 195 ;
196 [label="workforce <= 0.039\ngini = 0.383\nsamples = 712\nvalue = [184, 528]"] ;
195 -> 196 ;
197 [label="fairs <= 0.055\ngini = 0.356\nsamples = 626\nvalue = [145, 481]"] ;
196 -> 197 ;
198 [label="police <= 0.084\ngini = 0.332\nsamples = 580\nvalue = [122, 458]"] ;
197 -> 198 ;
199 [label="directed <= 0.159\ngini = 0.319\nsamples = 568\nvalue = [113, 455]"] ;
198 -> 199 ;
200 [label="dread <= 0.08\ngini = 0.31\nsamples = 563\nvalue = [108, 455]"] ;
199 -> 200 ;
201 [label="esteem <= 0.1\ngini = 0.294\nsamples = 547\nvalue = [98, 449]"] ;
200 -> 201 ;
202 [label="gini = 0.286\nsamples = 543\nvalue = [94, 449]"] ;
201 -> 202 ;
203 [label="gini = 0.0\nsamples = 4\nvalue = [4, 0]"] ;
201 -> 203 ;
204 [label="cohort <= 0.042\ngini = 0.469\nsamples = 16\nvalue = [10, 6]"] ;
200 -> 204 ;
205 [label="gini = 0.0\nsamples = 8\nvalue = [8, 0]"] ;
204 -> 205 ;
206 [label="gini = 0.375\nsamples = 8\nvalue = [2, 6]"] ;
204 -> 206 ;
207 [label="gini = 0.0\nsamples = 5\nvalue = [5, 0]"] ;
199 -> 207 ;
208 [label="fluency <= 0.015\ngini = 0.375\nsamples = 12\nvalue = [9, 3]"] ;
198 -> 208 ;
209 [label="gini = 0.0\nsamples = 9\nvalue = [9, 0]"] ;
208 -> 209 ;
210 [label="gini = 0.0\nsamples = 3\nvalue = [0, 3]"] ;
208 -> 210 ;
211 [label="socio <= 0.047\ngini = 0.5\nsamples = 46\nvalue = [23, 23]"] ;
197 -> 211 ;
212 [label="commons <= 0.036\ngini = 0.457\nsamples = 34\nvalue = [22, 12]"] ;
211 -> 212 ;
213 [label="everlasting <= 0.032\ngini = 0.18\nsamples = 20\nvalue = [18, 2]"] ;
212 -> 213 ;
214 [label="gini = 0.0\nsamples = 18\nvalue = [18, 0]"] ;
213 -> 214 ;
215 [label="gini = 0.0\nsamples = 2\nvalue = [0, 2]"] ;
213 -> 215 ;
216 [label="blast <= 0.03\ngini = 0.408\nsamples = 14\nvalue = [4, 10]"] ;
212 -> 216 ;
217 [label="potentials <= 0.06\ngini = 0.165\nsamples = 11\nvalue = [1, 10]"] ;
216 -> 217 ;
218 [label="gini = 0.0\nsamples = 10\nvalue = [0, 10]"] ;
217 -> 218 ;
219 [label="gini = 0.0\nsamples = 1\nvalue = [1, 0]"] ;
217 -> 219 ;
220 [label="gini = 0.0\nsamples = 3\nvalue = [3, 0]"] ;
216 -> 220 ;
221 [label="favorable <= 0.125\ngini = 0.153\nsamples = 12\nvalue = [1, 11]"] ;
211 -> 221 ;
222 [label="gini = 0.0\nsamples = 11\nvalue = [0, 11]"] ;
221 -> 222 ;
223 [label="gini = 0.0\nsamples = 1\nvalue = [1, 0]"] ;
221 -> 223 ;
224 [label="flashlight <= 0.115\ngini = 0.496\nsamples = 86\nvalue = [39, 47]"] ;
196 -> 224 ;
225 [label="flashes <= 0.078\ngini = 0.384\nsamples = 27\nvalue = [20, 7]"] ;
224 -> 225 ;
226 [label="folders <= 0.045\ngini = 0.278\nsamples = 24\nvalue = [20, 4]"] ;
225 -> 226 ;
227 [label="now <= 0.04\ngini = 0.165\nsamples = 22\nvalue = [20, 2]"] ;
226 -> 227 ;
228 [label="gini = 0.0\nsamples = 20\nvalue = [20, 0]"] ;
227 -> 228 ;
229 [label="gini = 0.0\nsamples = 2\nvalue = [0, 2]"] ;
227 -> 229 ;
230 [label="gini = 0.0\nsamples = 2\nvalue = [0, 2]"] ;
226 -> 230 ;
231 [label="gini = 0.0\nsamples = 3\nvalue = [0, 3]"] ;
225 -> 231 ;
232 [label="equality <= 0.055\ngini = 0.437\nsamples = 59\nvalue = [19, 40]"] ;
224 -> 232 ;
233 [label="cohort <= 0.095\ngini = 0.36\nsamples = 51\nvalue = [12, 39]"] ;
232 -> 233 ;
234 [label="flexible <= 0.12\ngini = 0.305\nsamples = 48\nvalue = [9, 39]"] ;
233 -> 234 ;
235 [label="wracking <= 0.182\ngini = 0.071\nsamples = 27\nvalue = [1, 26]"] ;
234 -> 235 ;
236 [label="gini = 0.0\nsamples = 26\nvalue = [0, 26]"] ;
235 -> 236 ;
237 [label="gini = 0.0\nsamples = 1\nvalue = [1, 0]"] ;
235 -> 237 ;
238 [label="figuring <= 0.019\ngini = 0.472\nsamples = 21\nvalue = [8, 13]"] ;
234 -> 238 ;
239 [label="gini = 0.0\nsamples = 3\nvalue = [3, 0]"] ;
238 -> 239 ;
240 [label="gini = 0.401\nsamples = 18\nvalue = [5, 13]"] ;
238 -> 240 ;
241 [label="gini = 0.0\nsamples = 3\nvalue = [3, 0]"] ;
233 -> 241 ;
242 [label="dead <= 0.04\ngini = 0.219\nsamples = 8\nvalue = [7, 1]"] ;
232 -> 242 ;
243 [label="gini = 0.0\nsamples = 7\nvalue = [7, 0]"] ;
242 -> 243 ;
244 [label="gini = 0.0\nsamples = 1\nvalue = [0, 1]"] ;
242 -> 244 ;
245 [label="extras <= 0.063\ngini = 0.498\nsamples = 58\nvalue = [31, 27]"] ;
195 -> 245 ;
246 [label="exit <= 0.031\ngini = 0.477\nsamples = 51\nvalue = [31, 20]"] ;
245 -> 246 ;
247 [label="veggies <= 0.032\ngini = 0.463\nsamples = 22\nvalue = [8, 14]"] ;
246 -> 247 ;
248 [label="copy <= 0.083\ngini = 0.473\nsamples = 13\nvalue = [8, 5]"] ;
247 -> 248 ;
249 [label="foresee <= 0.021\ngini = 0.32\nsamples = 10\nvalue = [8, 2]"] ;
248 -> 249 ;
250 [label="gini = 0.0\nsamples = 7\nvalue = [7, 0]"] ;
249 -> 250 ;
251 [label="gini = 0.444\nsamples = 3\nvalue = [1, 2]"] ;
249 -> 251 ;
252 [label="gini = 0.0\nsamples = 3\nvalue = [0, 3]"] ;
248 -> 252 ;
253 [label="gini = 0.0\nsamples = 9\nvalue = [0, 9]"] ;
247 -> 253 ;
254 [label="effect <= 0.044\ngini = 0.328\nsamples = 29\nvalue = [23, 6]"] ;
246 -> 254 ;
255 [label="financially <= 0.042\ngini = 0.083\nsamples = 23\nvalue = [22, 1]"] ;
254 -> 255 ;
256 [label="gini = 0.0\nsamples = 22\nvalue = [22, 0]"] ;
255 -> 256 ;
257 [label="gini = 0.0\nsamples = 1\nvalue = [0, 1]"] ;
255 -> 257 ;
258 [label="College_CareerPrep <= 0.083\ngini = 0.278\nsamples = 6\nvalue = [1, 5]"] ;
254 -> 258 ;
259 [label="gini = 0.0\nsamples = 5\nvalue = [0, 5]"] ;
258 -> 259 ;
260 [label="gini = 0.0\nsamples = 1\nvalue = [1, 0]"] ;
258 -> 260 ;
261 [label="gini = 0.0\nsamples = 7\nvalue = [0, 7]"] ;
245 -> 261 ;
262 [label="write <= 0.037\ngini = 0.391\nsamples = 3022\nvalue = [805, 2217]"] ;
108 -> 262 ;
263 [label="predict <= 0.062\ngini = 0.345\nsamples = 1938\nvalue = [430, 1508]"] ;
262 -> 263 ;
264 [label="deserts <= 0.09\ngini = 0.331\nsamples = 1818\nvalue = [381, 1437]"] ;
263 -> 264 ;
265 [label="fascinating <= 0.091\ngini = 0.327\nsamples = 1808\nvalue = [373, 1435]"] ;
264 -> 265 ;
266 [label="decomposing <= 0.197\ngini = 0.32\nsamples = 1773\nvalue = [355, 1418]"] ;
265 -> 266 ;
267 [label="potential <= 0.1\ngini = 0.315\nsamples = 1758\nvalue = [345, 1413]"] ;
266 -> 267 ;
268 [label="federal <= 0.106\ngini = 0.313\nsamples = 1753\nvalue = [340, 1413]"] ;
267 -> 268 ;
269 [label="catalyst <= 0.04\ngini = 0.31\nsamples = 1748\nvalue = [335, 1413]"] ;
268 -> 269 ;
270 [label="gini = 0.307\nsamples = 1741\nvalue = [329, 1412]"] ;
269 -> 270 ;
271 [label="gini = 0.245\nsamples = 7\nvalue = [6, 1]"] ;
269 -> 271 ;
272 [label="gini = 0.0\nsamples = 5\nvalue = [5, 0]"] ;
268 -> 272 ;
273 [label="gini = 0.0\nsamples = 5\nvalue = [5, 0]"] ;
267 -> 273 ;
274 [label="forgetting <= 0.013\ngini = 0.444\nsamples = 15\nvalue = [10, 5]"] ;
266 -> 274 ;
275 [label="statistics <= 0.056\ngini = 0.165\nsamples = 11\nvalue = [10, 1]"] ;
274 -> 275 ;
276 [label="gini = 0.0\nsamples = 10\nvalue = [10, 0]"] ;
275 -> 276 ;
277 [label="gini = 0.0\nsamples = 1\nvalue = [0, 1]"] ;
275 -> 277 ;
278 [label="gini = 0.0\nsamples = 4\nvalue = [0, 4]"] ;
274 -> 278 ;
279 [label="exceptionalities <= 0.028\ngini = 0.5\nsamples = 35\nvalue = [18, 17]"] ;
265 -> 279 ;
280 [label="boards <= 0.033\ngini = 0.278\nsamples = 12\nvalue = [2, 10]"] ;
279 -> 280 ;
281 [label="gini = 0.0\nsamples = 9\nvalue = [0, 9]"] ;
280 -> 281 ;
282 [label="gini = 0.444\nsamples = 3\nvalue = [2, 1]"] ;
280 -> 282 ;
283 [label="carts <= 0.029\ngini = 0.423\nsamples = 23\nvalue = [16, 7]"] ;
279 -> 283 ;
284 [label="drawn <= 0.045\ngini = 0.266\nsamples = 19\nvalue = [16, 3]"] ;
283 -> 284 ;
285 [label="escape <= 0.071\ngini = 0.111\nsamples = 17\nvalue = [16, 1]"] ;
284 -> 285 ;
286 [label="gini = 0.0\nsamples = 16\nvalue = [16, 0]"] ;
285 -> 286 ;
287 [label="gini = 0.0\nsamples = 1\nvalue = [0, 1]"] ;
285 -> 287 ;
288 [label="gini = 0.0\nsamples = 2\nvalue = [0, 2]"] ;
284 -> 288 ;
289 [label="gini = 0.0\nsamples = 4\nvalue = [0, 4]"] ;
283 -> 289 ;
290 [label="cared <= 0.02\ngini = 0.32\nsamples = 10\nvalue = [8, 2]"] ;
264 -> 290 ;
291 [label="gini = 0.0\nsamples = 8\nvalue = [8, 0]"] ;
290 -> 291 ;
292 [label="gini = 0.0\nsamples = 2\nvalue = [0, 2]"] ;
290 -> 292 ;
293 [label="enviornment <= 0.03\ngini = 0.483\nsamples = 120\nvalue = [49, 71]"] ;
263 -> 293 ;
294 [label="catalog <= 0.069\ngini = 0.467\nsamples = 113\nvalue = [42, 71]"] ;
293 -> 294 ;
295 [label="estimate <= 0.054\ngini = 0.447\nsamples = 107\nvalue = [36, 71]"] ;
294 -> 295 ;
296 [label="would <= 0.074\ngini = 0.414\nsamples = 99\nvalue = [29, 70]"] ;
295 -> 296 ;
297 [label="Math_Science <= 0.068\ngini = 0.388\nsamples = 95\nvalue = [25, 70]"] ;
296 -> 297 ;
298 [label="unable <= 0.118\ngini = 0.341\nsamples = 87\nvalue = [19, 68]"] ;
297 -> 298 ;
299 [label="gini = 0.308\nsamples = 84\nvalue = [16, 68]"] ;
298 -> 299 ;
300 [label="gini = 0.0\nsamples = 3\nvalue = [3, 0]"] ;
298 -> 300 ;
301 [label="exceptionalities <= 0.09\ngini = 0.375\nsamples = 8\nvalue = [6, 2]"] ;
297 -> 301 ;
302 [label="gini = 0.0\nsamples = 6\nvalue = [6, 0]"] ;
301 -> 302 ;
303 [label="gini = 0.0\nsamples = 2\nvalue = [0, 2]"] ;
301 -> 303 ;
304 [label="gini = 0.0\nsamples = 4\nvalue = [4, 0]"] ;
296 -> 304 ;
305 [label="expansion <= 0.032\ngini = 0.219\nsamples = 8\nvalue = [7, 1]"] ;
295 -> 305 ;
306 [label="gini = 0.0\nsamples = 7\nvalue = [7, 0]"] ;
305 -> 306 ;
307 [label="gini = 0.0\nsamples = 1\nvalue = [0, 1]"] ;
305 -> 307 ;
308 [label="gini = 0.0\nsamples = 6\nvalue = [6, 0]"] ;
294 -> 308 ;
309 [label="gini = 0.0\nsamples = 7\nvalue = [7, 0]"] ;
293 -> 309 ;
310 [label="cellphones <= 0.016\ngini = 0.453\nsamples = 1084\nvalue = [375, 709]"] ;
262 -> 310 ;
311 [label="expanding <= 0.219\ngini = 0.472\nsamples = 849\nvalue = [324, 525]"] ;
310 -> 311 ;
312 [label="catastrophic <= 0.077\ngini = 0.463\nsamples = 804\nvalue = [293, 511]"] ;
311 -> 312 ;
313 [label="recreational <= 0.091\ngini = 0.456\nsamples = 779\nvalue = [274, 505]"] ;
312 -> 313 ;
314 [label="expect <= 0.066\ngini = 0.451\nsamples = 769\nvalue = [264, 505]"] ;
313 -> 314 ;
315 [label="working <= 0.056\ngini = 0.44\nsamples = 730\nvalue = [239, 491]"] ;
314 -> 315 ;
316 [label="exceeding <= 0.06\ngini = 0.42\nsamples = 633\nvalue = [190, 443]"] ;
315 -> 316 ;
317 [label="gini = 0.404\nsamples = 594\nvalue = [167, 427]"] ;
316 -> 317 ;
318 [label="gini = 0.484\nsamples = 39\nvalue = [23, 16]"] ;
316 -> 318 ;
319 [label="predominant <= 0.051\ngini = 0.5\nsamples = 97\nvalue = [49, 48]"] ;
315 -> 319 ;
320 [label="gini = 0.48\nsamples = 75\nvalue = [45, 30]"] ;
319 -> 320 ;
321 [label="gini = 0.298\nsamples = 22\nvalue = [4, 18]"] ;
319 -> 321 ;
322 [label="ESL <= 0.024\ngini = 0.46\nsamples = 39\nvalue = [25, 14]"] ;
314 -> 322 ;
323 [label="ergonomically <= 0.098\ngini = 0.35\nsamples = 31\nvalue = [24, 7]"] ;
322 -> 323 ;
324 [label="gini = 0.245\nsamples = 28\nvalue = [24, 4]"] ;
323 -> 324 ;
325 [label="gini = 0.0\nsamples = 3\nvalue = [0, 3]"] ;
323 -> 325 ;
326 [label="drawstring <= 0.038\ngini = 0.219\nsamples = 8\nvalue = [1, 7]"] ;
322 -> 326 ;
327 [label="gini = 0.0\nsamples = 7\nvalue = [0, 7]"] ;
326 -> 327 ;
328 [label="gini = 0.0\nsamples = 1\nvalue = [1, 0]"] ;
326 -> 328 ;
329 [label="gini = 0.0\nsamples = 10\nvalue = [10, 0]"] ;
313 -> 329 ;
330 [label="collaboration <= 0.06\ngini = 0.365\nsamples = 25\nvalue = [19, 6]"] ;
312 -> 330 ;
331 [label="are <= 0.103\ngini = 0.236\nsamples = 22\nvalue = [19, 3]"] ;
330 -> 331 ;
332 [label="praise <= 0.105\ngini = 0.095\nsamples = 20\nvalue = [19, 1]"] ;
331 -> 332 ;
333 [label="gini = 0.0\nsamples = 19\nvalue = [19, 0]"] ;
332 -> 333 ;
334 [label="gini = 0.0\nsamples = 1\nvalue = [0, 1]"] ;
332 -> 334 ;
335 [label="gini = 0.0\nsamples = 2\nvalue = [0, 2]"] ;
331 -> 335 ;
336 [label="gini = 0.0\nsamples = 3\nvalue = [0, 3]"] ;
330 -> 336 ;
337 [label="foresee <= 0.022\ngini = 0.429\nsamples = 45\nvalue = [31, 14]"] ;
311 -> 337 ;
338 [label="forest <= 0.06\ngini = 0.298\nsamples = 33\nvalue = [27, 6]"] ;
337 -> 338 ;
339 [label="exhausted <= 0.047\ngini = 0.133\nsamples = 28\nvalue = [26, 2]"] ;
338 -> 339 ;
340 [label="gini = 0.0\nsamples = 25\nvalue = [25, 0]"] ;
339 -> 340 ;
341 [label="gini = 0.444\nsamples = 3\nvalue = [1, 2]"] ;
339 -> 341 ;
342 [label="disturbance <= 0.033\ngini = 0.32\nsamples = 5\nvalue = [1, 4]"] ;
338 -> 342 ;
343 [label="gini = 0.0\nsamples = 4\nvalue = [0, 4]"] ;
342 -> 343 ;
344 [label="gini = 0.0\nsamples = 1\nvalue = [1, 0]"] ;
342 -> 344 ;
345 [label="flashlight <= 0.194\ngini = 0.444\nsamples = 12\nvalue = [4, 8]"] ;
337 -> 345 ;
346 [label="examples <= 0.073\ngini = 0.198\nsamples = 9\nvalue = [1, 8]"] ;
345 -> 346 ;
347 [label="gini = 0.0\nsamples = 8\nvalue = [0, 8]"] ;
346 -> 347 ;
348 [label="gini = 0.0\nsamples = 1\nvalue = [1, 0]"] ;
346 -> 348 ;
349 [label="gini = 0.0\nsamples = 3\nvalue = [3, 0]"] ;
345 -> 349 ;
350 [label="exceedingly <= 0.074\ngini = 0.34\nsamples = 235\nvalue = [51, 184]"] ;
310 -> 350 ;
351 [label="upcoming <= 0.082\ngini = 0.311\nsamples = 223\nvalue = [43, 180]"] ;
350 -> 351 ;
352 [label="exploding <= 0.147\ngini = 0.293\nsamples = 219\nvalue = [39, 180]"] ;
351 -> 352 ;
353 [label="veggies <= 0.121\ngini = 0.273\nsamples = 215\nvalue = [35, 180]"] ;
352 -> 353 ;
354 [label="forces <= 0.079\ngini = 0.242\nsamples = 206\nvalue = [29, 177]"] ;
353 -> 354 ;
355 [label="expensive <= 0.086\ngini = 0.223\nsamples = 203\nvalue = [26, 177]"] ;
354 -> 355 ;
356 [label="gini = 0.204\nsamples = 200\nvalue = [23, 177]"] ;
355 -> 356 ;
357 [label="gini = 0.0\nsamples = 3\nvalue = [3, 0]"] ;
355 -> 357 ;
358 [label="gini = 0.0\nsamples = 3\nvalue = [3, 0]"] ;
354 -> 358 ;
359 [label="cellphones <= 0.062\ngini = 0.444\nsamples = 9\nvalue = [6, 3]"] ;
353 -> 359 ;
360 [label="gini = 0.0\nsamples = 6\nvalue = [6, 0]"] ;
359 -> 360 ;
361 [label="gini = 0.0\nsamples = 3\nvalue = [0, 3]"] ;
359 -> 361 ;
362 [label="gini = 0.0\nsamples = 4\nvalue = [4, 0]"] ;
352 -> 362 ;
363 [label="gini = 0.0\nsamples = 4\nvalue = [4, 0]"] ;
351 -> 363 ;
364 [label="formats <= 0.024\ngini = 0.444\nsamples = 12\nvalue = [8, 4]"] ;
350 -> 364 ;
365 [label="dreaded <= 0.037\ngini = 0.198\nsamples = 9\nvalue = [8, 1]"] ;
364 -> 365 ;
366 [label="gini = 0.0\nsamples = 8\nvalue = [8, 0]"] ;
365 -> 366 ;
367 [label="gini = 0.0\nsamples = 1\nvalue = [0, 1]"] ;
365 -> 367 ;
368 [label="gini = 0.0\nsamples = 3\nvalue = [0, 3]"] ;
364 -> 368 ;
}